digraph Tree {
node [shape=box, style="rounded", color="black", fontname=helvetica] ;
edge [fontname=helvetica] ;
0 [label="hour <= 6.5\nmse = 2.0\nsamples = 5067\nvalue = 4.6"] ;
1 [label="hour <= 5.5\nmse = 1.3\nsamples = 1467\nvalue = 2.9"] ;
0 -> 1 [labeldistance=2.5, labelangle=45, headlabel="True"] ;
2 [label="hour <= 1.5\nmse = 1.1\nsamples = 1252\nvalue = 2.7"] ;
1 -> 2 ;
3 [label="mse = 0.9\nsamples = 417\nvalue = 3.4"] ;
2 -> 3 ;
4 [label="mse = 0.9\nsamples = 835\nvalue = 2.3"] ;
2 -> 4 ;
5 [label="workingday <= 0.5\nmse = 1.1\nsamples = 215\nvalue = 3.9"] ;
1 -> 5 ;
6 [label="mse = 0.6\nsamples = 60\nvalue = 2.7"] ;
5 -> 6 ;
7 [label="mse = 0.3\nsamples = 155\nvalue = 4.4"] ;
5 -> 7 ;
8 [label="temp <= 18.5\nmse = 0.7\nsamples = 3600\nvalue = 5.3"] ;
0 -> 8 [labeldistance=2.5, labelangle=-45, headlabel="False"] ;
9 [label="hour <= 20.5\nmse = 0.7\nsamples = 1530\nvalue = 4.8"] ;
8 -> 9 ;
10 [label="mse = 0.7\nsamples = 1233\nvalue = 5.0"] ;
9 -> 10 ;
11 [label="mse = 0.5\nsamples = 297\nvalue = 4.2"] ;
9 -> 11 ;
12 [label="hour <= 20.5\nmse = 0.4\nsamples = 2070\nvalue = 5.6"] ;
8 -> 12 ;
13 [label="mse = 0.4\nsamples = 1732\nvalue = 5.7"] ;
12 -> 13 ;
14 [label="mse = 0.2\nsamples = 338\nvalue = 5.0"] ;
12 -> 14 ;
}