digraph Tree {
node [shape=box, style="rounded", color="black", fontname=helvetica] ;
edge [fontname=helvetica] ;
0 [label="hour_3 <= 0.5\nfriedman_mse = 2.2\nsamples = 5507\nvalue = 0.0"] ;
1 [label="hour_4 <= 0.5\nfriedman_mse = 1.9\nsamples = 5292\nvalue = 0.1"] ;
0 -> 1 [labeldistance=2.5, labelangle=45, headlabel="True"] ;
2 [label="hour_2 <= 0.5\nfriedman_mse = 1.6\nsamples = 5073\nvalue = 0.2"] ;
1 -> 2 ;
3 [label="friedman_mse = 1.2\nsamples = 4846\nvalue = 0.4"] ;
2 -> 3 ;
4 [label="friedman_mse = 0.4\nsamples = 227\nvalue = -2.6"] ;
2 -> 4 ;
5 [label="temp <= 11.1\nfriedman_mse = 0.3\nsamples = 219\nvalue = -2.9"] ;
1 -> 5 ;
6 [label="friedman_mse = 0.2\nsamples = 50\nvalue = -3.3"] ;
5 -> 6 ;
7 [label="friedman_mse = 0.3\nsamples = 169\nvalue = -2.7"] ;
5 -> 7 ;
8 [label="temp <= 13.5\nfriedman_mse = 0.3\nsamples = 215\nvalue = -2.9"] ;
0 -> 8 [labeldistance=2.5, labelangle=-45, headlabel="False"] ;
9 [label="temp <= 7.8\nfriedman_mse = 0.2\nsamples = 63\nvalue = -3.2"] ;
8 -> 9 ;
10 [label="friedman_mse = 0.1\nsamples = 14\nvalue = -3.6"] ;
9 -> 10 ;
11 [label="friedman_mse = 0.2\nsamples = 49\nvalue = -3.1"] ;
9 -> 11 ;
12 [label="weather_1 <= 0.5\nfriedman_mse = 0.2\nsamples = 152\nvalue = -2.8"] ;
8 -> 12 ;
13 [label="friedman_mse = 0.2\nsamples = 52\nvalue = -3.0"] ;
12 -> 13 ;
14 [label="friedman_mse = 0.2\nsamples = 100\nvalue = -2.7"] ;
12 -> 14 ;
}